digraph Tree {
node [shape=box, style="filled, rounded", color="black", fontname=helvetica] ;
edge [fontname=helvetica] ;
0 [label="PAY_4 <= 1.0\ngini = 0.36\nsamples = 999\nvalue = [1220, 380]\nclass = d", fillcolor="#eda877"] ;
1 [label="PAY_AMT5 <= 3122.5\ngini = 0.28\nsamples = 862\nvalue = [1150, 239]\nclass = d", fillcolor="#ea9b62"] ;
0 -> 1 [labeldistance=2.5, labelangle=45, headlabel="True"] ;
2 [label="PAY_0 <= 0.5\ngini = 0.34\nsamples = 590\nvalue = [742, 204]\nclass = d", fillcolor="#eca46f"] ;
1 -> 2 ;
3 [label="PAY_AMT2 <= 1718.0\ngini = 0.25\nsamples = 480\nvalue = [652, 111]\nclass = d", fillcolor="#e9965b"] ;
2 -> 3 ;
4 [label="gini = 0.32\nsamples = 240\nvalue = [311, 76]\nclass = d", fillcolor="#eba069"] ;
3 -> 4 ;
5 [label="gini = 0.17\nsamples = 240\nvalue = [341, 35]\nclass = d", fillcolor="#e88e4d"] ;
3 -> 5 ;
6 [label="PAY_2 <= -0.5\ngini = 0.5\nsamples = 110\nvalue = [90, 93]\nclass = e", fillcolor="#f9fcfe"] ;
2 -> 6 ;
7 [label="gini = 0.4\nsamples = 51\nvalue = [59, 23]\nclass = d", fillcolor="#efb286"] ;
6 -> 7 ;
8 [label="gini = 0.43\nsamples = 59\nvalue = [31, 70]\nclass = e", fillcolor="#91c8f1"] ;
6 -> 8 ;
9 [label="PAY_AMT2 <= 52269.0\ngini = 0.15\nsamples = 272\nvalue = [408, 35]\nclass = d", fillcolor="#e78c4a"] ;
1 -> 9 ;
10 [label="BILL_AMT5 <= -147.5\ngini = 0.14\nsamples = 264\nvalue = [402, 32]\nclass = d", fillcolor="#e78b49"] ;
9 -> 10 ;
11 [label="gini = 0.0\nsamples = 1\nvalue = [0, 1]\nclass = e", fillcolor="#399de5"] ;
10 -> 11 ;
12 [label="gini = 0.13\nsamples = 263\nvalue = [402, 31]\nclass = d", fillcolor="#e78b48"] ;
10 -> 12 ;
13 [label="PAY_AMT2 <= 80086.5\ngini = 0.44\nsamples = 8\nvalue = [6, 3]\nclass = d", fillcolor="#f2c09c"] ;
9 -> 13 ;
14 [label="gini = 0.38\nsamples = 3\nvalue = [1, 3]\nclass = e", fillcolor="#7bbeee"] ;
13 -> 14 ;
15 [label="gini = 0.0\nsamples = 5\nvalue = [5, 0]\nclass = d", fillcolor="#e58139"] ;
13 -> 15 ;
16 [label="BILL_AMT3 <= 17344.5\ngini = 0.44\nsamples = 137\nvalue = [70, 141]\nclass = e", fillcolor="#9bcef2"] ;
0 -> 16 [labeldistance=2.5, labelangle=-45, headlabel="False"] ;
17 [label="LIMIT_BAL <= 225000.0\ngini = 0.5\nsamples = 52\nvalue = [35, 39]\nclass = e", fillcolor="#ebf5fc"] ;
16 -> 17 ;
18 [label="PAY_AMT5 <= 3100.0\ngini = 0.47\nsamples = 43\nvalue = [24, 39]\nclass = e", fillcolor="#b3d9f5"] ;
17 -> 18 ;
19 [label="gini = 0.44\nsamples = 39\nvalue = [19, 39]\nclass = e", fillcolor="#99cdf2"] ;
18 -> 19 ;
20 [label="gini = 0.0\nsamples = 4\nvalue = [5, 0]\nclass = d", fillcolor="#e58139"] ;
18 -> 20 ;
21 [label="gini = 0.0\nsamples = 9\nvalue = [11, 0]\nclass = d", fillcolor="#e58139"] ;
17 -> 21 ;
22 [label="PAY_3 <= 1.0\ngini = 0.38\nsamples = 85\nvalue = [35, 102]\nclass = e", fillcolor="#7dbfee"] ;
16 -> 22 ;
23 [label="BILL_AMT2 <= 26914.5\ngini = 0.49\nsamples = 13\nvalue = [14, 11]\nclass = d", fillcolor="#f9e4d5"] ;
22 -> 23 ;
24 [label="gini = 0.0\nsamples = 3\nvalue = [7, 0]\nclass = d", fillcolor="#e58139"] ;
23 -> 24 ;
25 [label="gini = 0.48\nsamples = 10\nvalue = [7, 11]\nclass = e", fillcolor="#b7dbf6"] ;
23 -> 25 ;
26 [label="PAY_AMT1 <= 5650.0\ngini = 0.3\nsamples = 72\nvalue = [21, 91]\nclass = e", fillcolor="#67b4eb"] ;
22 -> 26 ;
27 [label="gini = 0.23\nsamples = 57\nvalue = [12, 79]\nclass = e", fillcolor="#57ace9"] ;
26 -> 27 ;
28 [label="gini = 0.49\nsamples = 15\nvalue = [9, 12]\nclass = e", fillcolor="#cee6f8"] ;
26 -> 28 ;
}